<?xml version="1.0"?>
<opencv_storage>
<opencv_ml_svm>
  <format>3</format>
  <svmType>C_SVC</svmType>
  <kernel>
    <type>LINEAR</type></kernel>
  <C>1.</C>
  <term_criteria><epsilon>1.1920928955078125e-07</epsilon></term_criteria>
  <var_count>25</var_count>
  <class_count>10</class_count>
  <class_labels type_id="opencv-matrix">
    <rows>10</rows>
    <cols>1</cols>
    <dt>i</dt>
    <data>
      0 1 2 3 4 5 6 7 8 9</data></class_labels>
  <sv_total>45</sv_total>
  <support_vectors>
    <_>
      -2.78656423e-01 8.84787068e-02 -9.40460414e-02 2.81701554e-02
      2.21266747e-01 9.17577028e-01 -1.35545991e-02 4.59527016e-01
      2.88230218e-02 7.64330626e-01 -7.34759048e-02 6.62117600e-01
      4.79138732e-01 4.11325833e-03 -5.10799229e-01 -9.81350958e-01
      -2.54251271e-01 -5.79285443e-01 -4.07060534e-01 3.27785641e-01
      1.71827108e-01 5.56363203e-02 -6.35396659e-01 1.87248960e-01
      5.02980463e-02</_>
    <_>
      -4.16461945e-01 -1.76063001e-01 4.19512987e-01 -2.32018188e-01
      4.33134288e-03 7.44936824e-01 1.85530573e-01 8.75214934e-02
      -5.62587559e-01 3.85026515e-01 -3.37277949e-01 4.39733593e-03
      2.99780607e-01 3.86943489e-01 -4.24460113e-01 -2.93814987e-01
      -1.26961184e+00 -8.07397723e-01 -5.21747351e-01 5.03497124e-01
      4.69129890e-01 2.17813671e-01 -2.62347132e-01 -2.84153253e-01
      1.03825741e-02</_>
    <_>
      -1.40483245e-01 -3.96933734e-01 -2.43949011e-01 -2.20472783e-01
      5.02333462e-01 4.74386573e-01 -8.60703945e-01 3.43476146e-01
      -3.66587460e-01 6.21727347e-01 -5.76435268e-01 -2.27087826e-01
      6.65674806e-01 -9.82366130e-02 -7.51810789e-01 1.50113896e-01
      -8.59920084e-01 4.57128100e-02 -1.18852031e+00 -7.12734699e-01
      4.13691431e-01 8.13548028e-01 -2.29114980e-01 -5.17927289e-01
      2.82086104e-01</_>
    <_>
      -4.68338847e-01 -2.24251971e-02 -2.43832037e-01 -1.91117730e-02
      3.50940406e-01 4.67351824e-01 -8.58076870e-01 9.33918774e-01
      3.93911272e-01 3.60584944e-01 -4.24927205e-01 1.03767776e+00
      4.13712174e-01 -5.85361302e-01 2.77399927e-01 -9.75710526e-02
      4.08517241e-01 -4.55590844e-01 -6.77811503e-01 4.52536643e-01
      2.02875823e-01 2.81807810e-01 -5.87823510e-01 2.75885575e-02
      -8.06234598e-01</_>
    <_>
      -7.04927087e-01 -2.48874158e-01 3.12067300e-01 5.48141897e-02
      7.93223321e-01 9.09772277e-01 -9.14621875e-02 6.67153597e-01
      -1.02576800e-01 5.61621308e-01 -2.20116109e-01 -3.66740644e-01
      5.16006649e-01 -1.21009961e-01 -8.95154059e-01 -2.35260949e-01
      -1.03301823e+00 -5.76611102e-01 -2.16262177e-01 -3.09612066e-01
      2.35506788e-01 6.60216957e-02 -3.49833071e-01 -2.82029510e-01
      -1.65693536e-02</_>
    <_>
      -3.83018404e-01 -4.91424464e-02 5.95627844e-01 -4.08910885e-02
      6.28294468e-01 1.32407451e+00 -1.86097100e-01 2.94055820e-01
      -1.22835115e-01 3.75815034e-01 -1.49930462e-01 1.56030253e-01
      6.31548524e-01 -1.22539096e-01 8.70596319e-02 -8.48349571e-01
      -9.40822959e-01 -1.57519996e-01 -2.13204533e-01 1.03624143e-01
      2.34638542e-01 5.91411233e-01 -1.08319521e+00 -3.26402634e-01
      -3.57686818e-01</_>
    <_>
      -9.39905941e-01 -8.13920721e-02 8.50845695e-01 -3.24953586e-01
      2.34841883e-01 9.48961258e-01 -4.29632455e-01 -5.82627296e-01
      -7.32723653e-01 -1.57032516e-02 -5.65061271e-02 1.47599103e-02
      3.68696958e-01 5.14808953e-01 -1.87756479e-01 -4.34711635e-01
      -8.64692688e-01 5.58661520e-01 -8.85741189e-02 5.92312217e-01
      -1.33586615e-01 1.56569511e-01 -7.22716689e-01 -1.84075743e-01
      1.45754561e-01</_>
    <_>
      -5.97769022e-01 -2.30876461e-01 5.73906600e-01 -2.61258602e-01
      5.54943800e-01 2.99975395e-01 -3.08425605e-01 1.12759185e+00
      -3.58688645e-02 1.23733652e+00 4.46092129e-01 -1.27727047e-01
      8.14685106e-01 -1.16420411e-01 -5.95098659e-02 6.86635315e-01
      -1.06430709e+00 5.25296986e-01 -9.99377310e-01 -8.49483013e-01
      3.15339983e-01 2.77096003e-01 1.32699415e-01 -9.40673411e-01
      -3.94249439e-01</_>
    <_>
      -7.79440463e-01 -4.83690232e-01 1.86982587e-01 3.72810587e-02
      4.53087479e-01 -1.42469108e-01 -1.51931301e-01 7.69277096e-01
      2.78026968e-01 4.33121741e-01 -8.77045810e-01 5.84755599e-01
      2.88235247e-01 -3.74730378e-02 -2.96341717e-01 -8.97491798e-02
      -9.94386673e-01 -1.33101225e-01 -4.42166448e-01 1.69934649e-02
      1.41637608e-01 1.51957899e-01 -1.60966590e-01 -9.61595833e-01
      -3.28956246e-02</_>
    <_>
      -1.33835122e-01 2.03552144e-03 5.54745436e-01 -1.38788983e-01
      -4.11242455e-01 -3.35178643e-01 -1.82655960e-01 -4.13189977e-01
      -6.28315687e-01 -3.63964289e-01 -8.96006152e-02 -1.00308239e+00
      1.11852050e-01 3.21405351e-01 8.50947797e-02 1.08163333e+00
      -1.11409307e+00 5.29871397e-02 -3.31379443e-01 3.14582765e-01
      3.82572681e-01 2.78318197e-01 4.67884004e-01 -3.44157517e-01
      1.97592359e-02</_>
    <_>
      2.15337887e-01 -1.86867923e-01 8.56381506e-02 1.11537809e-02
      -1.86996073e-01 -6.97806001e-01 -7.08026528e-01 -2.30350643e-02
      -2.25156575e-01 -1.68278769e-01 -2.20482111e-01 -6.24289811e-01
      5.73885500e-01 1.24459505e-01 3.36655527e-01 1.51050651e+00
      -1.09637773e+00 5.58441877e-01 -7.27541804e-01 -6.15610242e-01
      2.96832830e-01 5.98353326e-01 4.85734820e-01 -5.39134800e-01
      1.16285846e-01</_>
    <_>
      -9.92253423e-02 5.63797727e-02 1.48311839e-01 1.05765127e-02
      -9.36397612e-02 -7.18568042e-02 -6.99334323e-01 4.53454733e-01
      2.51902714e-02 -4.58188981e-01 5.14649376e-02 -7.26756006e-02
      -2.87400812e-01 -4.16971564e-01 1.06277084e+00 1.19612718e+00
      5.24792969e-01 1.02995503e+00 3.56502533e-01 1.06502128e+00
      -1.53676420e-01 3.09806406e-01 5.35621822e-01 -2.69949406e-01
      -6.84178472e-01</_>
    <_>
      -3.59399974e-01 1.27027646e-01 4.72216040e-01 -1.13652670e-04
      4.02507752e-01 2.33120933e-01 -6.05885200e-02 2.81206191e-01
      -3.68951648e-01 -9.08784755e-03 2.09979892e-01 -1.34438431e+00
      1.68559968e-01 1.62878066e-01 9.49594080e-02 1.01165843e+00
      -8.78169835e-01 2.70688355e-01 2.24790931e-01 -3.13942492e-01
      -6.35707825e-02 8.02889168e-02 3.59939158e-01 -5.35309613e-01
      1.48368850e-01</_>
    <_>
      3.91906127e-02 -1.89509347e-01 8.15807462e-01 5.90075105e-02
      1.12593010e-01 3.06602657e-01 -3.08657289e-01 -3.30720872e-01
      -1.96120530e-01 -2.16433614e-01 1.73262700e-01 -9.26508665e-01
      -9.16104540e-02 1.66401640e-01 8.81730616e-01 7.00509071e-01
      -7.74454534e-01 1.13670313e+00 3.28052700e-01 1.63675006e-02
      1.29944310e-01 8.32532048e-01 2.91824192e-02 -5.87249458e-01
      -2.94790745e-01</_>
    <_>
      -3.57226580e-01 -1.34425219e-02 9.83174384e-01 -2.86887381e-02
      -3.67071718e-01 -2.91019946e-01 -5.27756512e-01 -8.95074368e-01
      -2.72521496e-01 -7.38507092e-01 1.47425398e-01 -7.96009362e-01
      -1.56485245e-01 5.81094861e-01 3.82934988e-01 8.75384748e-01
      -4.63399440e-01 1.32128775e+00 3.20097059e-01 3.45723957e-01
      -2.48547524e-01 -3.83636951e-02 1.91614345e-01 -3.08598369e-01
      -2.17980165e-02</_>
    <_>
      -1.62427835e-02 -4.26838398e-01 7.24214971e-01 -2.48207659e-01
      4.27823514e-02 -1.66906789e-01 -3.21535021e-01 3.59349400e-01
      -3.98206413e-01 3.43490422e-01 4.22000289e-01 -4.22722965e-01
      3.00526977e-01 1.43504068e-01 5.35243809e-01 1.05263352e+00
      -8.41170371e-01 1.18301976e+00 -3.72576833e-01 -6.04571402e-01
      -7.63594285e-02 3.97036791e-01 7.83798158e-01 -8.62907052e-01
      -2.75574744e-01</_>
    <_>
      -3.73485714e-01 -5.54641426e-01 3.23022693e-01 -9.31208730e-02
      -1.74993910e-02 -1.04510987e+00 -9.79388803e-02 1.46724775e-01
      -1.65933624e-01 -2.85993397e-01 -6.01019204e-01 -2.99135774e-01
      -3.99662375e-01 5.47837794e-01 4.62114848e-02 1.16148758e+00
      -6.85007811e-01 8.67651820e-01 2.78433532e-01 -4.74541396e-01
      -6.11538701e-02 2.71924555e-01 6.27780199e-01 -1.24259746e+00
      -4.33018766e-02</_>
    <_>
      2.23995477e-01 -2.16697291e-01 -4.97430027e-01 2.01944172e-01
      2.08407775e-01 -4.24819380e-01 -7.28595316e-01 3.46001327e-01
      4.74357605e-01 1.65477216e-01 1.58340245e-01 -1.24202957e-02
      4.09334540e-01 -2.12966114e-01 8.23901892e-02 9.49475229e-01
      5.04884481e-01 1.14278746e+00 -4.86646265e-01 -9.20303166e-01
      -1.38756745e-02 5.35544693e-01 1.59028381e-01 -2.47951671e-01
      2.32243896e-01</_>
    <_>
      1.93609044e-01 3.52316275e-02 -4.07544792e-01 2.96804383e-02
      -6.55550808e-02 -1.29131809e-01 -6.21874213e-01 5.15448868e-01
      7.08316922e-01 -3.65711987e-01 -1.18054282e-02 1.10571992e+00
      -3.33958358e-01 -8.57649505e-01 3.75778377e-01 5.85609786e-02
      1.21200180e+00 5.28018355e-01 1.96423177e-02 -1.54014111e-01
      -1.86402157e-01 1.04801700e-01 3.41235340e-01 1.36100888e-01
      -6.75545335e-01</_>
    <_>
      -2.02510700e-01 5.44458814e-02 6.20459840e-02 1.61726475e-01
      5.56309044e-01 4.52092230e-01 5.98773897e-01 8.52436185e-01
      2.57941186e-01 1.23766318e-01 3.43035758e-01 -1.77611351e-01
      4.25434858e-01 8.78936425e-02 -1.56669989e-01 3.07032205e-02
      6.74601138e-01 5.60614586e-01 6.85560107e-01 -8.07321966e-01
      -4.40791279e-01 -3.02755952e-01 -1.49179369e-01 -8.06174576e-02
      -4.66396697e-02</_>
    <_>
      3.19517285e-01 -2.15390965e-01 1.89327672e-01 1.88014120e-01
      3.23084116e-01 6.65298700e-01 -1.29237503e-01 2.20043942e-01
      3.14332187e-01 -1.76410228e-01 3.69634569e-01 1.69953346e-01
      -4.88916114e-02 -5.06791651e-01 6.82954311e-01 -2.51665771e-01
      5.03008723e-01 1.01324403e+00 5.28753161e-01 -3.56570482e-01
      -9.03190970e-02 5.40095747e-01 -5.35886049e-01 -3.77047434e-02
      -3.04431170e-01</_>
    <_>
      -2.10753098e-01 3.19906116e-01 5.79006016e-01 1.21609785e-01
      4.93839420e-02 1.87260523e-01 -4.10281539e-01 -3.59728277e-01
      2.42620632e-01 -4.10249442e-01 3.82023692e-01 -2.30116889e-01
      -2.42277026e-01 -6.27019480e-02 2.59433687e-01 2.23331377e-02
      6.73769116e-01 1.59610116e+00 4.71156567e-01 -9.73222107e-02
      -5.72876871e-01 -1.32973433e-01 -7.88186789e-02 3.74017954e-01
      1.09918118e-01</_>
    <_>
      1.74475625e-01 -2.26935521e-01 2.60952353e-01 -9.04194638e-02
      1.73379868e-01 -1.00555614e-01 1.79690234e-02 8.67983878e-01
      5.81042422e-03 4.19604778e-01 6.57166779e-01 3.04515846e-03
      5.12372255e-01 -4.44617540e-01 3.80784929e-01 6.08704746e-01
      -1.61154941e-01 1.51654959e+00 1.14113964e-01 -1.04753840e+00
      -1.73176050e-01 -5.37789315e-02 5.16418636e-01 -8.59964371e-01
      -3.21311831e-01</_>
    <_>
      -1.14132434e-01 -4.84620154e-01 -2.36281767e-01 1.86780751e-01
      3.00129652e-01 -7.92075574e-01 -1.97671410e-02 9.31233704e-01
      5.02390742e-01 -4.99090515e-02 -5.61013699e-01 5.96269369e-01
      -3.49176019e-01 -4.59356278e-01 9.37038194e-03 3.19098562e-01
      7.15257347e-01 8.87021244e-01 2.97654003e-01 -8.34698975e-01
      -2.70106137e-01 1.78723447e-02 2.39426479e-01 -6.94767594e-01
      -1.54910209e-02</_>
    <_>
      -6.84969202e-02 2.46207774e-01 -6.32478446e-02 2.70316284e-02
      -1.86355412e-01 2.23042831e-01 -2.46563211e-01 3.19073856e-01
      6.69736683e-01 -2.12987646e-01 3.46708685e-01 9.62501168e-01
      -3.83713216e-01 -5.20313263e-01 6.44356251e-01 -2.26330623e-01
      1.19756222e+00 -2.24299476e-01 3.93966556e-01 7.32217610e-01
      -1.29130974e-01 -4.87841487e-01 4.28673029e-02 6.04845881e-01
      -9.50102389e-01</_>
    <_>
      -4.38777864e-01 1.41744211e-01 4.80026901e-01 -7.34959682e-03
      3.80087107e-01 9.24301326e-01 1.21300220e+00 4.23620015e-01
      -2.37335309e-01 5.05915284e-02 2.23895416e-01 -3.52470309e-01
      4.62881252e-02 9.51777324e-02 -2.14058384e-01 -7.63853490e-01
      3.12678546e-01 -3.79133821e-01 1.27671111e+00 2.79990453e-02
      -3.87790620e-01 -6.57226801e-01 -3.17863643e-01 1.30572751e-01
      -3.23251069e-01</_>
    <_>
      1.14303477e-01 -1.22291353e-02 6.68624878e-01 3.78032331e-03
      1.40768379e-01 1.06351388e+00 5.23067594e-01 -2.44074970e-01
      -1.42661706e-01 -2.87412494e-01 2.10535005e-01 1.63657010e-01
      -4.63540018e-01 -2.76098996e-01 5.63550889e-01 -1.11012447e+00
      2.99934056e-02 -9.50491801e-02 1.00737548e+00 5.23999274e-01
      -5.08241095e-02 1.78319290e-02 -6.98407173e-01 2.66171575e-01
      -5.19587398e-01</_>
    <_>
      -6.68588042e-01 1.91220477e-01 1.01950812e+00 -2.54399061e-01
      -3.05422157e-01 2.27529451e-01 8.78092349e-02 -1.00603771e+00
      -1.24912053e-01 -3.88758212e-01 3.27255458e-01 3.80112469e-01
      -1.62917972e-01 5.28830647e-01 3.37833762e-01 -3.17223430e-01
      3.93557489e-01 5.77375650e-01 7.39104092e-01 9.30992484e-01
      -3.56234878e-01 -5.85543454e-01 -4.69838858e-01 2.58994550e-01
      -1.37202680e-01</_>
    <_>
      -2.28798777e-01 2.09063236e-02 7.78370261e-01 -2.67435253e-01
      -3.53502706e-02 9.89981443e-02 6.08864963e-01 7.63513207e-01
      -1.33764818e-02 6.46764696e-01 1.13063085e+00 2.80003399e-01
      -2.24682167e-02 -1.32451996e-01 6.33023143e-01 2.98733950e-01
      3.11025769e-01 9.44913566e-01 6.15887940e-01 -3.11812282e-01
      -1.47086412e-01 -4.74356353e-01 5.11381209e-01 -5.66740572e-01
      -7.39894688e-01</_>
    <_>
      -4.10289705e-01 -5.39798856e-01 1.81141883e-01 -7.68966973e-02
      7.05145001e-02 -4.65135813e-01 6.47849798e-01 2.32694969e-01
      -2.71663256e-02 -3.43365580e-01 -6.20815933e-01 7.62094676e-01
      -8.33173275e-01 -6.85551111e-03 -1.37137383e-01 -4.26445067e-01
      3.09515417e-01 -5.57440631e-02 9.21437621e-01 2.65889138e-01
      -1.82214588e-01 -4.33695763e-01 1.41007617e-01 -6.05854154e-01
      -1.69066057e-01</_>
    <_>
      -6.28654242e-01 -2.56450951e-01 4.13792014e-01 3.43686730e-01
      6.20638311e-01 1.54586658e-01 9.43605304e-01 2.15524986e-01
      -3.40587109e-01 3.03168625e-01 -2.40508452e-01 -9.95363772e-01
      8.42919052e-02 4.71514851e-01 -1.03836715e+00 1.36175171e-01
      -9.41418767e-01 -3.97987992e-01 2.71137893e-01 -5.94242215e-01
      3.58244121e-01 -2.31304895e-02 -4.13650982e-02 -2.47689933e-01
      9.86058295e-01</_>
    <_>
      -3.48146111e-02 -3.12165469e-01 6.36713862e-01 2.67285071e-02
      3.42775941e-01 6.22101247e-01 6.92058921e-01 -4.77886617e-01
      -6.16725504e-01 -7.77352527e-02 1.25506908e-01 -8.90590906e-01
      9.71030295e-02 3.05091292e-01 -1.51282668e-01 -5.63063562e-01
      -1.61824608e+00 -8.66563097e-02 1.44173697e-01 -3.43044639e-01
      2.48671219e-01 5.97901344e-01 -7.24556029e-01 -2.30018899e-01
      5.89843333e-01</_>
    <_>
      -3.81486505e-01 1.61293194e-01 8.89777482e-01 -2.97539681e-01
      -1.92430168e-01 1.24171548e-01 1.39422312e-01 -1.22260034e+00
      -5.59935629e-01 -1.30070990e-03 2.97890514e-01 -8.78574491e-01
      1.59687132e-01 7.09722281e-01 -2.67403811e-01 -8.58353544e-03
      -8.09424818e-01 6.37934089e-01 9.31608975e-02 -1.67135060e-01
      -1.04099274e-01 -8.42512548e-02 -1.44581720e-01 -1.74730256e-01
      9.05318677e-01</_>
    <_>
      1.77318752e-02 -9.21707302e-02 5.93597829e-01 -2.01089785e-01
      1.69115335e-01 -3.02596271e-01 2.49496102e-01 2.58944392e-01
      -5.86643279e-01 5.23071170e-01 5.75652122e-01 -1.01661098e+00
      2.01866910e-01 1.97364166e-01 -1.35448009e-01 6.99923754e-01
      -9.92224991e-01 6.38421893e-01 -2.42532715e-01 -1.03227031e+00
      2.59059072e-01 1.93365946e-01 2.68421024e-01 -4.80260342e-01
      5.27564466e-01</_>
    <_>
      -3.62650216e-01 -4.95431125e-01 2.82408092e-02 -1.03928328e-01
      2.53864378e-01 -6.60659313e-01 8.37091148e-01 2.79513933e-02
      -2.87821382e-01 -2.11234957e-01 -6.86137319e-01 -5.92167616e-01
      -7.10579753e-02 2.86355883e-01 -6.30551040e-01 2.39712283e-01
      -1.05239499e+00 1.01636671e-01 2.51582940e-03 -5.92427433e-01
      1.22414455e-01 2.25381345e-01 -4.58262861e-02 -8.29938352e-01
      8.75092804e-01</_>
    <_>
      4.36017394e-01 -1.37616962e-01 2.10511774e-01 1.48880631e-02
      -2.38374174e-01 1.37898058e-01 -5.35757422e-01 -5.12481809e-01
      1.89700231e-01 -1.34529680e-01 -8.95374827e-03 7.36043692e-01
      -1.45387724e-01 -1.73684344e-01 1.16369200e+00 -4.94480312e-01
      9.81626660e-03 6.79993212e-01 1.58848792e-01 6.70348763e-01
      1.31429255e-01 5.19206882e-01 -6.54524088e-01 -8.27074125e-02
      -4.58599150e-01</_>
    <_>
      -1.17294915e-01 1.78895533e-01 5.28700352e-01 -1.88439682e-01
      -5.40835559e-01 -1.92022935e-01 -4.88809526e-01 -1.25216675e+00
      2.95706913e-02 -6.96229041e-01 1.39188036e-01 5.66145182e-01
      -4.62844074e-01 6.58374846e-01 7.29140043e-01 -2.23637387e-01
      -6.52215704e-02 1.29813802e+00 2.07349420e-01 9.45882857e-01
      -2.62177080e-01 -7.36801550e-02 1.14471987e-01 3.46836597e-01
      1.64740473e-01</_>
    <_>
      3.38350117e-01 -2.34956294e-01 2.51415759e-01 -3.30086768e-01
      -4.33719218e-01 -6.27664864e-01 -5.15832007e-01 8.68004858e-02
      -7.78951943e-02 4.39509749e-01 5.97267151e-01 5.18200994e-01
      1.29471183e-01 -1.67799354e-01 7.91011691e-01 8.20966065e-01
      -3.95456553e-01 1.32983720e+00 -3.77838492e-01 -1.59434289e-01
      2.19488770e-01 1.24269791e-01 6.51279449e-01 -8.51334155e-01
      -4.13188457e-01</_>
    <_>
      1.72548145e-02 -3.54359776e-01 -9.67027247e-02 -2.08198875e-01
      -2.83562601e-01 -1.01868415e+00 -1.02337025e-01 -8.71080756e-02
      3.09567656e-02 -2.90478796e-01 -5.42738080e-01 9.35921907e-01
      -2.29672492e-01 1.69545829e-01 3.35299373e-01 8.09453502e-02
      6.79676533e-02 4.34121788e-01 -1.62612557e-01 1.63350567e-01
      -2.66902030e-01 1.61053225e-01 1.76245775e-02 -8.50440621e-01
      -1.25744909e-01</_>
    <_>
      -4.00354534e-01 1.44163981e-01 2.25162014e-01 -2.84613907e-01
      -4.92729694e-01 -3.40600401e-01 -3.72476012e-01 -1.05172682e+00
      -5.21510899e-01 -5.83348930e-01 3.99349242e-01 -8.56877342e-02
      -4.80173171e-01 4.41174090e-01 -3.54380310e-01 4.87954855e-01
      7.67119452e-02 6.91164792e-01 2.15204179e-01 4.94818389e-01
      -3.50569427e-01 -3.51610601e-01 6.14083409e-01 2.82850236e-01
      5.10728359e-01</_>
    <_>
      -1.22603767e-01 -2.67068863e-01 5.79078356e-03 -3.21195394e-01
      -2.13839546e-01 -8.34776282e-01 -2.18759671e-01 5.09505153e-01
      -2.09416032e-01 6.13246679e-01 6.83428407e-01 -1.92043826e-01
      3.28934431e-01 5.08808158e-02 -2.30551407e-01 1.37392020e+00
      -2.88622469e-01 7.97366440e-01 -4.70228940e-01 -7.87629843e-01
      1.17464326e-01 -3.31037551e-01 1.19395077e+00 -7.75063694e-01
      2.60628387e-03</_>
    <_>
      -4.77293462e-01 -5.07019818e-01 -4.83792871e-01 -1.28971145e-01
      -8.48644823e-02 -1.53516018e+00 1.92367151e-01 5.49944162e-01
      1.25965238e-01 -4.97775748e-02 -8.68801296e-01 7.17072666e-01
      -2.79995173e-01 3.49906802e-01 -6.36036575e-01 6.89896524e-01
      2.09261209e-01 -5.37113808e-02 -1.62548110e-01 -3.81871849e-01
      -1.76051378e-01 -4.94766802e-01 7.90930748e-01 -9.00633693e-01
      2.93795586e-01</_>
    <_>
      4.81094807e-01 -2.78562516e-01 -2.47435257e-01 1.20045722e-03
      2.76436120e-01 -1.76079109e-01 6.10068381e-01 1.70477617e+00
      9.61673483e-02 1.07960379e+00 4.35586393e-01 -6.89570531e-02
      5.17194271e-01 -5.00350773e-01 2.11975694e-01 6.12928867e-01
      -7.52516448e-01 1.42820850e-01 -2.38927051e-01 -1.11853957e+00
      3.13680232e-01 3.16381454e-02 7.33243465e-01 -9.34844136e-01
      -5.50415993e-01</_>
    <_>
      1.21835202e-01 -5.61977386e-01 -7.51664400e-01 1.14680752e-01
      2.11181521e-01 -7.39785194e-01 6.11724734e-01 1.34627199e+00
      1.93723664e-01 2.91091025e-01 -7.48541117e-01 6.86819255e-01
      -9.38056335e-02 -4.49357331e-01 -2.09437117e-01 5.07711107e-03
      -2.28170350e-01 -7.40452886e-01 4.22539674e-02 -6.52105808e-01
      2.08505318e-01 1.37264460e-01 2.77988136e-01 -7.97014594e-01
      -1.33183375e-01</_>
    <_>
      -3.55661780e-01 -1.57988071e-01 -4.56912011e-01 2.03658551e-01
      1.09225869e-01 -6.16366863e-01 3.47655803e-01 5.82127348e-02
      4.26718175e-01 -7.80075133e-01 -1.54457259e+00 7.17089474e-01
      -4.94048923e-01 1.54976293e-01 -3.94495934e-01 -6.77833200e-01
      5.73771358e-01 -8.16225767e-01 3.15542519e-01 5.25995851e-01
      -2.34509543e-01 -5.16796820e-02 -4.72719789e-01 7.72098685e-03
      3.59734684e-01</_></support_vectors>
  <uncompressed_sv_total>100</uncompressed_sv_total>
  <uncompressed_support_vectors>
    <_>
      2.52840906e-01 2.30113640e-01 0. 1.89393945e-03 3.59848477e-02
      5.86174250e-01 1.18371211e-01 0. 4.29924250e-01 5.33143938e-01
      5.88068187e-01 5.37878811e-01 5.67234874e-01 9.41287875e-01
      1.42992422e-01 3.50378789e-02 2.03598484e-01 2.00757578e-01
      7.31060624e-01 3.78787890e-03 0. 0. 0. 4.82007563e-01 0.</_>
    <_>
      0. 0. 0. 0. 0. 4.09356713e-01 5.55555582e-01 5.55555582e-01
      5.55555582e-01 4.21052635e-01 7.36842096e-01 1. 1. 1.
      7.10526288e-01 4.91228074e-01 6.66666687e-01 6.66666687e-01
      6.66666687e-01 6.37426913e-01 0. 0. 0. 0. 1.75438598e-02</_>
    <_>
      0. 0. 0. 0. 0. 0. 0. 1.44444451e-01 7.72222221e-01 5.55555582e-01
      6.49999976e-01 8.99999976e-01 9.58333313e-01 1. 6.94444418e-01
      7.22222209e-01 1. 9.41666663e-01 4.55555558e-01 1.38888896e-01
      7.22222254e-02 1.00000001e-01 1.00000001e-01 0. 0.</_>
    <_>
      6.63390681e-02 5.79852581e-01 2.14987710e-01 0. 0. 6.27764106e-01
      5.34398019e-01 6.46191657e-01 0. 0. 5.60196579e-01 1.78132683e-01
      6.13022089e-01 0. 0. 6.69533193e-01 9.41031933e-01 7.05159724e-01
      5.45454562e-01 3.83292377e-01 1.11793615e-01 3.88206393e-01
      3.63636374e-01 3.63636374e-01 2.55528241e-01</_>
    <_>
      2.00892854e-02 4.00297612e-01 6.06398821e-01 1.71130951e-02 0.
      5.88541687e-01 4.65773821e-01 5.02976179e-01 6.02678582e-02 0.
      1.63690478e-01 3.12500000e-01 6.07142866e-01 3.45238090e-01
      2.60416657e-01 1.63690478e-01 3.12500000e-01 6.80059552e-01
      3.18452388e-01 2.60416657e-01 0. 0. 4.12202388e-01 0. 0.</_>
    <_>
      1.98787883e-01 3.97575766e-01 4.92121220e-01 0. 0. 3.63636374e-01
      8.29090893e-01 7.76969671e-01 2.54545454e-02 5.50303042e-01
      2.18181815e-02 7.57575750e-01 6.06060624e-01 1.21212125e-01
      6.80000007e-01 1.10303029e-01 5.74545443e-01 6.27878785e-01
      6.36363626e-01 4.31515157e-01 0. 7.27272732e-03 2.18181819e-01
      5.12727261e-01 4.60606068e-02</_>
    <_>
      4.30430442e-01 0. 0. 0. 0. 6.12612605e-01 1.50150154e-02 0. 0. 0.
      4.88488495e-01 8.90890881e-02 0. 0. 2.00200197e-03 3.92392397e-01
      4.03403401e-01 3.35335344e-01 7.38738716e-01 6.58658683e-01
      1.29129127e-01 5.40540516e-01 4.70470458e-01 1.33133128e-01
      8.00800789e-03</_>
    <_>
      0. 2.08333328e-01 5.13157904e-01 5.16447365e-01 1.55701756e-01
      2.59868413e-01 8.27850878e-01 7.64254391e-01 4.29824561e-01
      6.62280679e-01 5.12061417e-01 1.66666672e-01 5.41666687e-01
      1.20614031e-02 5.38377166e-01 0. 0. 5.19736826e-01 6.14035070e-01
      6.34868443e-01 0. 0. 1.74342111e-01 5.36184192e-01 1.28289476e-01</_>
    <_>
      0. 1.88405797e-01 4.66183573e-01 4.39613521e-01 1.44927531e-01
      1.17149755e-01 9.32367146e-01 6.94444418e-01 5.33816397e-01
      6.00241542e-01 6.46135271e-01 4.34782594e-01 5.76086938e-01 0.
      6.21980667e-01 1.01449274e-01 0. 7.29468584e-01 4.00966197e-01
      6.31642520e-01 0. 0. 2.00483099e-01 5.94202876e-01 2.70531386e-01</_>
    <_>
      1.23700626e-01 5.15592515e-01 2.39085238e-02 0. 0. 6.09147608e-01
      5.76923072e-01 6.79833651e-01 7.62993753e-01 3.17047805e-01
      6.35135114e-01 9.35550928e-02 8.87733877e-01 1.49688154e-01
      6.87110186e-01 6.15384638e-01 7.95218289e-01 7.43243217e-01
      5.01039505e-01 5.71725547e-01 1.87110186e-01 3.38877350e-01
      1.22661121e-01 5.32224536e-01 1.16424114e-01</_>
    <_>
      4.07470286e-01 0. 0. 0. 0. 5.26315808e-01 0. 0. 0. 0.
      5.56876063e-01 8.48896452e-04 0. 0. 0. 5.94227493e-01
      6.62139207e-02 6.45161271e-02 6.45161271e-02 6.45161271e-02
      3.92190158e-01 5.80645144e-01 5.80645144e-01 5.80645144e-01
      4.27843809e-01</_>
    <_>
      1.04166664e-01 5.05208313e-01 1.06250003e-01 0. 0. 6.42708361e-01
      5.52083313e-01 4.08333331e-01 0. 0. 6.18749976e-01 4.03124988e-01
      3.07291657e-01 0. 0. 3.88541669e-01 9.81249988e-01 7.67708361e-01
      7.08333313e-01 5.31250000e-01 6.66666701e-02 3.02083343e-01
      1.21875003e-01 1.25000000e-01 9.37500000e-02</_>
    <_>
      0. 0. 6.00375235e-02 3.07692319e-01 0. 0. 0. 5.52532852e-01
      4.89681065e-01 0. 4.15572226e-01 1.92307696e-01 6.07879937e-01
      4.21200752e-01 2.92682916e-01 6.77298307e-01 8.08630407e-01
      1.31332085e-01 7.03564703e-01 6.06003761e-01 1.87617261e-02
      1.68855526e-02 0. 4.19324577e-01 1.75422132e-01</_>
    <_>
      0. 0. 0. 5.04201688e-02 4.85714287e-01 4.63865548e-01
      4.45378162e-02 1.24369748e-01 6.98319316e-01 4.72268909e-01
      3.00840348e-01 6.36134446e-01 5.63865542e-01 4.62184876e-01
      3.26050431e-01 0. 0. 0. 3.83193284e-01 2.53781527e-01 0. 0. 0.
      3.58823538e-01 9.57983211e-02</_>
    <_>
      3.28282833e-01 4.54545468e-01 3.78787875e-01 0. 6.31313100e-02
      3.28282833e-01 8.11868668e-01 7.17171729e-01 2.52525252e-03
      7.09595978e-01 0. 6.37626290e-01 6.78030312e-01 8.96464661e-02
      6.70454562e-01 2.52525252e-03 6.96969688e-01 5.07575750e-01
      8.75000000e-01 4.82323229e-01 0. 3.37121218e-01 1.38888890e-02
      2.73989886e-01 7.19696954e-02</_>
    <_>
      0. 0. 3.11801255e-01 4.54658389e-01 7.95031041e-02 0.
      2.07453415e-01 8.26086938e-01 6.04968965e-01 5.61490655e-01
      4.22360264e-02 8.60869586e-01 2.50931680e-01 1.49068320e-02
      6.17391288e-01 3.98757756e-01 6.47204995e-01 7.00621128e-01
      6.37267053e-01 6.40993774e-01 3.65217388e-01 6.58385083e-02
      5.08074522e-01 3.37888211e-01 1.10559009e-01</_>
    <_>
      1.44927539e-02 4.26328510e-01 2.93478251e-01 0. 0. 5.15700459e-01
      6.43719792e-01 7.02898562e-01 0. 0. 5.85748792e-01 7.36714974e-02
      6.76328480e-01 0. 0. 6.11111104e-01 7.63285041e-01 7.74154603e-01
      3.91304344e-01 3.04347813e-01 1.48550719e-01 4.77053136e-01
      4.81884062e-01 4.78260875e-01 3.59903395e-01</_>
    <_>
      2.62599468e-01 6.25994682e-01 2.75862068e-01 0. 0. 6.77276731e-01
      2.03359857e-01 5.90627789e-01 1.85676385e-02 2.74093729e-02
      5.23430586e-01 3.21839094e-01 7.81609178e-01 7.65694082e-01
      6.73740029e-01 1.64456233e-01 6.33952260e-01 4.20866489e-01
      5.87975264e-01 6.10079587e-01 0. 0. 0. 5.07515490e-01
      2.25464195e-01</_>
    <_>
      2.71111101e-01 1.95555553e-01 0. 1.77777782e-01 3.40740740e-01
      4.93333340e-01 3.22962970e-01 2.96296291e-02 7.71851838e-01
      5.57037055e-01 3.77777785e-01 8.88888896e-01 8.22222233e-01
      8.93333316e-01 3.91111106e-01 0. 5.92592591e-03 1.48148148e-03
      7.86666691e-01 1.80740744e-01 0. 0. 1.18518518e-02 6.47407413e-01
      2.37037037e-02</_>
    <_>
      1.71428565e-02 3.54285717e-01 5.92380941e-01 5.69523811e-01
      7.14285746e-02 3.56190473e-01 6.31428599e-01 1.51428565e-01
      3.16190481e-01 6.10476196e-01 6.55238092e-01 1.04761906e-01 0.
      1.15238093e-01 6.23809516e-01 5.50476193e-01 2.21904755e-01
      2.26666674e-01 7.59047627e-01 1.42857149e-01 9.23809558e-02
      7.02857137e-01 5.44761896e-01 7.23809525e-02 0.</_>
    <_>
      3.92156886e-03 0. 0. 0. 0. 7.01960802e-01 5.70588231e-01
      3.52941185e-01 2.03921571e-01 8.23529437e-02 8.03921580e-01 1. 1.
      1. 8.23529422e-01 1.72549024e-01 5.23529410e-01 6.96078420e-01
      8.99999976e-01 7.41176486e-01 0. 0. 0. 0. 0.</_>
    <_>
      0. 1.70598909e-01 5.19963682e-01 4.33756799e-01 9.80036333e-02
      3.43012691e-01 7.68602550e-01 8.30308557e-01 3.83847564e-01
      5.65335751e-01 3.66606176e-01 2.45009083e-02 6.04355693e-01
      1.81488204e-03 6.19782209e-01 0. 0. 6.19782209e-01 3.76588017e-01
      4.69146997e-01 0. 0. 1.94192380e-01 7.07803965e-01 3.53901982e-02</_>
    <_>
      4.23529416e-01 0. 0. 0. 0. 5.88235319e-01 0. 0. 0. 0.
      5.88235319e-01 0. 0. 8.23529437e-02 8.70588198e-02 6.16470575e-01
      5.00000000e-01 7.45882332e-01 8.79999995e-01 5.74117661e-01
      9.41176489e-02 4.87058818e-01 2.19999999e-01 1.17647061e-02 0.</_>
    <_>
      0. 0. 0. 2.10084044e-03 4.48529422e-01 5.11554599e-01
      1.36554623e-02 0. 2.48949572e-01 6.55462205e-01 6.00840330e-01 0.
      4.20168089e-03 7.14285731e-01 5.48319340e-01 6.44957960e-01
      3.85504216e-01 5.54621875e-01 5.31512618e-01 5.17857134e-01
      7.14285746e-02 4.68487382e-01 4.03361350e-01 9.87394974e-02
      3.36134464e-01</_>
    <_>
      7.73993786e-04 2.31424153e-01 6.10681117e-01 0. 0. 4.74458218e-01
      4.69814241e-01 6.26160979e-01 0. 0. 1.74148604e-01 2.64705896e-01
      6.51702762e-01 2.64705896e-01 1.98142409e-01 2.12848291e-01
      3.23529422e-01 7.12848306e-01 3.35139304e-01 2.65479863e-01 0. 0.
      3.86996895e-01 0. 0.</_>
    <_>
      3.37728202e-01 2.63691675e-02 0. 3.14401612e-02 2.93103456e-01
      6.17647052e-01 0. 0. 5.80121696e-01 5.00000000e-01 6.16632879e-01
      0. 3.55983764e-01 8.40770781e-01 2.95131832e-01 6.50101423e-01
      5.42596340e-01 6.00405693e-01 4.64503050e-01 2.07910746e-01
      9.12778899e-02 2.74847865e-01 2.33265720e-02 3.66125762e-01
      9.83772799e-02</_>
    <_>
      3.93939406e-01 0. 0. 0. 0. 6.06060624e-01 0. 0. 0. 0.
      6.46969676e-01 1.07575759e-01 0. 3.63636374e-01 5.04545450e-01
      5.22727251e-01 7.56060600e-01 7.40909100e-01 8.13636363e-01
      3.48484844e-01 1.15151517e-01 3.89393926e-01 3.36363643e-01
      1.51515156e-02 0.</_>
    <_>
      3.90838206e-01 1.39376223e-01 0. 0. 0. 5.69200754e-01
      1.96881086e-01 6.92007765e-02 6.10136449e-01 4.51267064e-01
      2.35867441e-01 6.38401568e-01 6.24756336e-01 8.78167629e-01
      2.02729046e-01 0. 0. 2.27095515e-01 6.64717376e-01 0. 0. 0.
      4.20077980e-01 2.19298244e-01 0.</_>
    <_>
      0. 0. 3.03896099e-01 0. 0. 0. 1.00000001e-01 8.67532492e-01
      2.59740255e-03 0. 4.51948047e-01 7.33766258e-01 7.98701286e-01
      5.71428575e-02 6.27272725e-01 2.51948059e-01 3.29870135e-01
      7.10389614e-01 6.74025953e-01 5.19480526e-01 0. 0. 2.28571430e-01
      3.97402585e-01 4.41558436e-02</_>
    <_>
      2.56944448e-01 6.39756918e-01 9.89583358e-02 0. 0. 6.35416687e-01
      2.28298604e-01 7.22222209e-01 5.01736104e-01 2.28298604e-01
      5.06076396e-01 8.69791687e-01 8.43750000e-01 2.15277776e-01
      6.24131918e-01 9.54861101e-03 5.03472239e-02 3.61111104e-01
      4.99131948e-01 6.57118082e-01 0. 0. 3.38541679e-02 5.31250000e-01
      2.45659724e-01</_>
    <_>
      3.60360369e-02 3.94594580e-01 5.82882881e-01 4.34234232e-01
      4.50450461e-03 5.57657659e-01 4.68468457e-01 1.23423420e-01
      5.14414430e-01 5.04504502e-01 6.19819820e-01 5.76576591e-02 0. 0.
      5.66666663e-01 3.85585576e-01 5.45945942e-01 1.18918918e-01
      5.40540516e-01 4.75675672e-01 0. 4.62162167e-01 6.57657683e-01
      3.98198187e-01 9.00900923e-04</_>
    <_>
      0. 2.10526317e-01 5.22267222e-01 5.09109318e-01 2.45951414e-01
      4.14979756e-01 7.96558678e-01 7.28744924e-01 2.79352218e-01
      6.59919024e-01 3.26923072e-01 3.54251005e-02 6.00202441e-01 0.
      5.42510092e-01 0. 0. 5.27327955e-01 4.13967609e-01 6.72064781e-01
      0. 0. 1.30566806e-01 6.59919024e-01 6.78137615e-02</_>
    <_>
      1.85111985e-01 7.24637695e-03 3.47167313e-01 0. 0. 5.44795811e-01
      4.35441375e-01 5.44795811e-01 0. 1.77865606e-02 2.06192359e-01
      4.09090906e-01 4.42687750e-01 1.97628457e-02 5.69169939e-01 0. 0.
      4.94729906e-01 5.09881437e-01 1.73913047e-01 0. 0. 3.66271406e-01
      3.20816875e-01 0.</_>
    <_>
      6.46551698e-02 5.84482729e-01 1.17241383e-01 0. 0. 3.75862062e-01
      3.90517235e-01 5.60344815e-01 1.37931034e-02 0. 6.00000024e-01
      8.87931064e-02 8.34482729e-01 7.35344827e-01 5.06896555e-01
      6.03448272e-01 8.12068939e-01 6.39655173e-01 3.08620691e-01
      5.27586222e-01 7.93103427e-02 1.77586213e-01 3.27586196e-02
      6.28448248e-01 4.66379315e-01</_>
    <_>
      2.09790215e-01 2.33100238e-03 3.00699294e-01 0. 0. 5.66433549e-01
      1.85314685e-01 6.31701648e-01 3.49650346e-03 6.51515126e-01
      5.30303001e-01 8.76456857e-01 6.85314715e-01 2.84382284e-01
      4.93007004e-01 4.07925397e-02 2.61072248e-01 5.30303001e-01
      8.15850794e-01 7.69230798e-02 0. 0. 1.84149191e-01 3.39160830e-01
      0.</_>
    <_>
      3.31891894e-01 6.70270249e-02 0. 0. 0. 5.74054062e-01
      4.97297309e-02 0. 0. 0. 6.08648658e-01 0. 0. 0. 0. 5.94594598e-01
      3.54594588e-01 5.48108101e-01 6.87567592e-01 6.38918936e-01
      3.65405411e-01 4.87567574e-01 3.15675676e-01 1.65405408e-01
      6.16216213e-02</_>
    <_>
      0. 0. 0. 3.03030312e-02 1.79653674e-01 0. 4.32900432e-03
      4.48051959e-01 8.98268402e-01 7.87878811e-01 1.23376623e-01
      7.42424250e-01 9.87012982e-01 7.25108206e-01 3.50649357e-01
      6.53679669e-01 8.96103919e-01 2.25108221e-01 0. 0. 2.16450214e-01
      3.89610380e-02 0. 0. 0.</_>
    <_>
      0. 2.30147064e-01 6.66911781e-01 1.25000000e-01 0. 4.36029404e-01
      4.52205896e-01 3.26470584e-01 2.33088240e-01 0. 2.79411767e-02 0.
      2.97058821e-01 2.23529413e-01 0. 8.82352963e-02 5.88235319e-01
      7.82352924e-01 7.05882370e-01 4.83823538e-01 0. 0. 4.66911763e-01
      4.41176491e-03 4.26470600e-02</_>
    <_>
      8.88888910e-02 5.02222240e-01 4.21111107e-01 0. 0. 6.35555565e-01
      5.42222202e-01 7.48888910e-01 7.77777806e-02 0. 6.65555537e-01
      7.22222254e-02 6.91111088e-01 7.44444430e-02 0. 5.32222211e-01
      8.50000024e-01 6.53333306e-01 2.00000003e-01 1.44444451e-01
      2.70000011e-01 5.69999993e-01 6.07777774e-01 6.00000024e-01
      4.33333337e-01</_>
    <_>
      0. 0. 0. 1.64021164e-01 4.25925940e-01 4.92063493e-01
      2.36772493e-01 3.02910060e-01 9.06084657e-01 3.74338627e-01
      2.69841284e-01 7.12962985e-01 6.34920657e-01 8.42592597e-01
      8.46560821e-02 0. 0. 1.01851851e-01 7.80423284e-01 0. 0. 0.
      1.45502642e-01 3.34656090e-01 0.</_>
    <_>
      0. 0. 1.86965808e-01 4.77564096e-01 2.02991456e-01 0.
      3.83547008e-01 8.97435904e-01 4.60470080e-01 6.76282048e-01
      3.06623936e-01 7.78846145e-01 6.80555582e-01 0. 5.24572670e-01
      4.73290592e-01 6.62393197e-02 5.17094016e-01 5.05341887e-01
      6.59188032e-01 0. 0. 9.50854719e-02 6.11111104e-01 1.11111112e-01</_>
    <_>
      7.04081655e-02 5.59183657e-01 5.41836739e-01 4.37755108e-01
      2.85714287e-02 4.58163261e-01 4.11224484e-01 1.95918366e-01
      6.14285707e-01 5.58163285e-01 5.79591811e-01 4.80612248e-01 0.
      4.48979586e-02 7.24489808e-01 7.55102038e-02 8.07142854e-01
      2.36734688e-01 7.62244880e-01 3.41836721e-01 0. 3.54081631e-01
      6.26530588e-01 1.95918366e-01 0.</_>
    <_>
      0. 2.53333330e-01 5.01818180e-01 4.65454549e-01 8.48484877e-03
      3.78181815e-01 7.61212111e-01 3.83030295e-01 6.04848504e-01
      4.60606068e-01 6.13333344e-01 5.80606043e-01 0. 8.96969661e-02
      5.96363664e-01 5.27272701e-01 7.62424231e-01 4.44848478e-01
      6.94545448e-01 4.49696958e-01 0. 1.50303036e-01 6.02424264e-01
      3.64848495e-01 1.21212122e-03</_>
    <_>
      1.46005511e-01 4.32506889e-01 2.25895315e-01 0. 0. 6.33608818e-01
      6.34986222e-01 7.72727251e-01 0. 0. 6.19834721e-01 3.58126730e-01
      7.28650153e-01 0. 0. 6.07438028e-01 1. 6.69421494e-01
      4.71074373e-01 3.30578506e-01 5.50964177e-02 2.86501378e-01
      4.06336099e-01 4.62809920e-01 3.30578506e-01</_>
    <_>
      1.31304353e-01 5.49565196e-01 3.73913050e-02 0. 0. 5.73913038e-01
      5.18260896e-01 2.95652181e-01 0. 0. 4.90434796e-01 4.71304357e-01
      2.40869567e-01 0. 0. 4.27826077e-01 8.76521766e-01 2.33913049e-01
      1.66956529e-01 1.25217393e-01 6.69565201e-02 4.62608695e-01
      6.06086969e-01 6.46086931e-01 5.00869572e-01</_>
    <_>
      1.74812034e-01 5.82706779e-02 0. 0. 0. 7.36842096e-01
      8.17669153e-01 2.29323313e-01 0. 0. 1.57894731e-01 6.91729307e-01
      9.98120308e-01 7.14285731e-01 3.08270663e-01 0. 1.87969916e-02
      3.87218058e-01 8.87218058e-01 8.27067673e-01 0. 0. 0.
      3.00751887e-02 2.61278182e-01</_>
    <_>
      3.97074193e-01 0. 0. 0. 0. 6.33228838e-01 7.52351061e-02
      7.15778470e-01 0. 0. 4.55590397e-01 7.18913257e-01 7.62800395e-01
      6.58307225e-02 5.37095070e-01 0. 0. 6.18599772e-01 6.78160906e-01
      2.94670850e-01 0. 0. 5.33960283e-01 3.67816091e-01 0.</_>
    <_>
      2.96474360e-02 3.85416657e-01 3.12500000e-01 3.71794879e-01
      1.49038464e-01 3.51762831e-01 1.68269239e-02 0. 0. 3.39743584e-01
      2.96474367e-01 0. 0. 0. 2.62019217e-01 3.63782048e-01 0. 0.
      1.85096160e-01 3.57371807e-01 9.77564082e-02 3.70993584e-01
      4.08653855e-01 2.25961536e-01 0.</_>
    <_>
      0. 2.82454759e-01 6.06608987e-01 1.60503536e-01 0. 4.89378452e-01
      4.93312359e-01 2.75373727e-01 3.72147918e-01 0. 1.35326520e-01
      3.22580636e-01 4.05192763e-01 5.70416987e-01 2.58064508e-01
      1.18017308e-01 3.22580636e-01 4.94099140e-01 5.61762393e-01
      3.17073166e-01 0. 0. 2.14791507e-01 1.87254131e-01 0.</_>
    <_>
      1.14285715e-01 0. 0. 0. 0. 6.70476198e-01 6.36190474e-01
      1.14285715e-01 0. 0. 1.63809523e-01 8.89523804e-01 9.31428552e-01
      5.63809514e-01 7.42857158e-02 0. 3.80952395e-02 5.63809514e-01
      9.56190467e-01 7.14285731e-01 0. 0. 0. 1.33333340e-01
      2.15238094e-01</_>
    <_>
      4.15384620e-01 5.76923072e-01 7.86324814e-02 0. 0. 7.01709390e-01
      4.23076928e-01 5.82906008e-01 0. 0. 3.15384626e-01 7.08546996e-01
      7.91453004e-01 7.45299160e-01 5.79487205e-01 0. 3.02564114e-01
      4.95726496e-01 4.56410259e-01 6.30769253e-01 0. 0. 7.69230770e-03
      5.02564132e-01 2.81196594e-01</_>
    <_>
      2.35185191e-01 5.37037015e-01 1.50925919e-01 3.25925916e-01
      1.47222221e-01 6.23148143e-01 3.16666663e-01 9.26851869e-01
      5.57407379e-01 6.86111093e-01 5.91666639e-01 1.59259260e-01
      8.31481457e-01 1.48148146e-02 6.44444466e-01 5.23148119e-01
      8.49074066e-01 6.63888872e-01 5.27777791e-01 3.14814806e-01
      2.03703698e-02 5.55555560e-02 7.68518522e-02 5.92592597e-01
      1.48148146e-02</_>
    <_>
      2.75862068e-01 2.01508626e-01 0. 0. 0. 5.58189631e-01
      2.20905170e-01 0. 2.53232747e-01 4.10560340e-01 5.37715495e-01
      5.92672408e-01 4.37500000e-01 9.06250000e-01 4.88146544e-01
      3.12500000e-02 2.17672408e-01 1.87500000e-01 5.56034505e-01
      3.55603456e-01 0. 0. 0. 4.69827592e-01 1.30387932e-01</_>
    <_>
      3.04731369e-01 7.69847631e-02 3.64073783e-01 0. 3.36808339e-02
      6.12670422e-01 6.25501215e-01 4.68323976e-01 2.24538893e-02
      5.76583803e-01 3.38412195e-01 2.75060147e-01 4.65116292e-01
      4.03368086e-01 2.30954289e-01 0. 0. 5.75781882e-01 5.96631944e-01
      0. 0. 1.84442662e-02 6.84843600e-01 9.30232555e-02 0.</_>
    <_>
      0. 1.07416883e-01 4.33503836e-01 4.87212270e-01 1.02301791e-01
      5.11508947e-03 7.25063920e-01 8.52941155e-01 6.47058845e-01
      5.35805643e-01 3.26086968e-01 5.29411793e-01 7.05882370e-01
      4.21994887e-02 6.30434811e-01 5.95907927e-01 9.97442454e-02
      6.87979519e-01 5.74168801e-01 6.27877235e-01 0. 0. 2.23785162e-01
      4.19437349e-01 1.07416883e-01</_>
    <_>
      1.24521069e-02 4.58812267e-01 5.95785439e-01 4.92337167e-01
      2.29885057e-02 4.45402294e-01 5.30651331e-01 1.46551728e-01
      4.63601530e-01 5.27777791e-01 6.77203059e-01 1.93486586e-01 0.
      4.50191572e-02 6.11111104e-01 8.04597735e-02 7.62452126e-01
      1.67624518e-01 6.84865892e-01 2.95977026e-01 0. 1.92528740e-01
      6.66666687e-01 3.07471275e-01 0.</_>
    <_>
      0. 3.11805546e-01 4.34722215e-01 0. 0. 2.43055552e-01
      5.31250000e-01 5.36805570e-01 6.38888925e-02 0. 5.76388896e-01
      1.04166670e-02 5.26388884e-01 7.77777806e-02 0. 3.33333343e-01
      7.04861104e-01 6.06249988e-01 9.72222239e-02 3.12500000e-02
      1.38888890e-02 2.91666657e-01 5.24999976e-01 6.00000024e-01
      5.45138896e-01</_>
    <_>
      3.56472790e-01 0. 0. 0. 0. 4.87804890e-01 0. 0. 0. 0.
      4.87804890e-01 0. 0. 0. 1.87617261e-02 5.89118183e-01
      2.02626646e-01 6.15384638e-01 8.48030031e-01 6.20075047e-01
      3.76172602e-01 6.30393982e-01 2.86116332e-01 9.28705409e-02
      9.38086305e-04</_>
    <_>
      0. 2.82454759e-01 6.06608987e-01 1.60503536e-01 0. 4.89378452e-01
      4.93312359e-01 2.75373727e-01 3.72147918e-01 0. 1.35326520e-01
      3.22580636e-01 4.05192763e-01 5.70416987e-01 2.58064508e-01
      1.18017308e-01 3.22580636e-01 4.94099140e-01 5.61762393e-01
      3.17073166e-01 0. 0. 2.14791507e-01 1.87254131e-01 0.</_>
    <_>
      2.59259254e-01 1.11111112e-01 0. 1.83760688e-01 4.43019956e-01
      5.49857557e-01 7.59259284e-01 5.19942999e-01 9.23076928e-01
      5.31339049e-01 3.84615399e-02 2.86324799e-01 2.86324799e-01
      8.93162370e-01 7.40740746e-02 0. 0. 2.79202282e-01 6.46723628e-01
      0. 0. 0. 3.57549846e-01 2.00854704e-01 0.</_>
    <_>
      1.27255455e-01 5.42260230e-01 2.55460590e-01 0. 0. 6.17283940e-01
      3.08641970e-01 7.00854719e-01 0. 0. 5.66951573e-01 0.
      5.28015196e-01 0. 0. 5.52706540e-01 4.13105398e-01 6.96106374e-01
      7.88224116e-02 5.31813875e-02 1.47198483e-01 6.50522292e-01
      6.40075982e-01 6.75213695e-01 4.78632480e-01</_>
    <_>
      0. 0. 0. 0. 0. 4.85714287e-01 8.06349218e-01 7.77777791e-01
      7.77777791e-01 5.77777803e-01 7.14285731e-01 1. 1. 1.
      7.42857158e-01 5.17460346e-01 4.85714287e-01 4.44444448e-01
      4.44444448e-01 5.84127009e-01 0. 0. 0. 0. 0.</_>
    <_>
      3.47222225e-03 3.47222209e-01 5.31250000e-01 5.24305582e-01
      1.75925925e-01 6.33101881e-01 7.04861104e-01 8.06712985e-01
      3.87731493e-01 6.57407403e-01 1.18055552e-01 6.94444450e-03
      6.27314806e-01 5.20833321e-02 5.82175910e-01 0. 0. 5.08101881e-01
      5.12731493e-01 6.44675910e-01 0. 0. 2.02546299e-01 6.42361104e-01
      1.82870373e-01</_>
    <_>
      1.71957672e-01 3.66402119e-01 2.30158731e-01 0. 1.94444448e-01
      5.39682567e-01 8.08201075e-01 5.27777791e-01 4.10052910e-02
      6.70634925e-01 2.34126985e-01 4.44444448e-01 5.27777791e-01
      2.91005284e-01 4.84126985e-01 3.70370358e-01 3.75661373e-01
      8.63756597e-01 8.12169313e-01 1.45502642e-01 2.16931224e-01
      1.29629627e-01 3.13492060e-01 4.03439164e-01 0.</_>
    <_>
      2.99145311e-01 0. 0. 0. 0. 5.12820542e-01 0. 0. 0. 4.13461536e-01
      5.52350402e-01 5.23504280e-02 5.11752129e-01 9.93589759e-02
      6.11111104e-01 5.04273534e-01 5.95085442e-01 8.66452992e-01
      7.10470080e-01 1.63461536e-01 1.06837608e-01 5.09615362e-01
      1.42094016e-01 3.20512831e-01 0.</_>
    <_>
      0. 0. 1.78571433e-01 6.64634168e-01 2.16027871e-01 3.39721255e-02
      5.57491302e-01 9.25087094e-01 2.71777004e-01 6.35888517e-01
      5.94947755e-01 3.21428567e-01 3.56271774e-01 3.14459920e-01
      5.40069699e-01 3.83275263e-02 0. 8.44947770e-02 7.18641102e-01
      4.78222996e-01 0. 0. 0. 5.72299659e-01 1.30662024e-02</_>
    <_>
      2.02475682e-01 6.08311236e-01 4.07603890e-01 0. 0. 6.64898336e-01
      3.18302393e-01 6.74624205e-01 2.96198040e-01 1.35278508e-01
      5.29619813e-01 8.63837302e-01 9.48717952e-01 4.49160039e-01
      6.88771009e-01 0. 6.10079579e-02 4.53580916e-01 4.08488065e-01
      6.21573806e-01 0. 0. 6.01237826e-02 6.50751531e-01 1.73297971e-01</_>
    <_>
      1.50037512e-01 0. 3.93098265e-01 0. 0. 4.78619665e-01
      2.50562638e-01 6.66916728e-01 0. 2.03300819e-01 5.25881469e-01
      6.78919733e-01 4.73368347e-01 9.67741907e-02 5.85896492e-01 0. 0.
      5.34883738e-01 5.70142508e-01 8.85221288e-02 0. 0. 3.84846210e-01
      3.49587411e-01 0.</_>
    <_>
      3.11011910e-01 1.63690485e-02 0. 0. 0. 5.93750000e-01
      5.05952388e-02 0. 0. 0. 5.92261910e-01 3.82440478e-01 0.
      1.56250000e-01 2.51488090e-01 1.44345239e-01 9.16666687e-01
      6.39880955e-01 9.19642866e-01 4.91071433e-01 0. 2.70833343e-01
      4.46428567e-01 5.05952388e-02 0.</_>
    <_>
      2.90322572e-01 5.00000000e-01 2.46774197e-01 0. 0. 4.25806463e-01
      6.20967746e-01 6.27419353e-01 3.38709690e-02 2.40322575e-01
      5.43548405e-01 2.50000000e-01 7.56451607e-01 2.19354838e-01
      7.08064497e-01 6.17741942e-01 1.54838711e-01 8.35483849e-01
      8.62903237e-01 3.08064520e-01 2.45161295e-01 2.74193548e-02
      2.79032260e-01 3.56451601e-01 1.61290320e-03</_>
    <_>
      3.38803083e-01 5.36679566e-01 4.41119701e-01 0. 0. 1.82432428e-01
      6.07142866e-01 6.15830123e-01 1.44787645e-02 3.67760628e-01 0.
      5.69498062e-01 6.07142866e-01 2.22972974e-01 5.43436289e-01
      1.93050189e-03 6.42857134e-01 3.93822402e-01 9.18918908e-01
      1.49613902e-01 0. 3.64864856e-01 0. 3.66795361e-02 0.</_>
    <_>
      4.83870953e-01 6.45161271e-01 6.12903237e-01 0. 0. 2.25806460e-02
      3.75000000e-01 5.00000000e-01 0. 8.46774206e-02 1.50000006e-01
      4.44354832e-01 5.00000000e-01 8.06451589e-03 6.04838729e-01
      1.64516136e-01 1.85483873e-01 5.01612902e-01 3.47580642e-01
      3.13709676e-01 0. 0. 4.02419358e-01 5.78225791e-01 3.22580640e-03</_>
    <_>
      0. 2.22222224e-01 5.56677878e-01 5.51066220e-01 6.28507286e-02
      4.26487088e-01 7.31762052e-01 2.63748586e-01 4.50056106e-01
      5.89225590e-01 5.83613932e-01 8.64197537e-02 0. 1.23456791e-02
      6.50954008e-01 5.98204255e-01 6.65544331e-01 2.59259254e-01
      6.86868668e-01 5.05050480e-01 2.15488210e-01 4.52300787e-01
      6.20650947e-01 3.49046022e-01 0.</_>
    <_>
      0. 0. 5.40540554e-03 0. 0. 5.83783805e-01 8.00000012e-01
      8.29729736e-01 6.18918896e-01 1.54054061e-01 7.29729712e-01 1. 1.
      1. 7.56756783e-01 1.45945951e-01 2.00000003e-01 2.86486477e-01
      7.89189160e-01 6.99999988e-01 0. 0. 0. 8.10810830e-03
      3.24324332e-02</_>
    <_>
      0. 0. 0. 7.63888881e-02 4.09722209e-01 5.94907403e-01
      4.05092575e-02 2.77777780e-02 7.43055582e-01 6.04166687e-01
      4.94212955e-01 7.39583313e-01 7.60416687e-01 7.21064806e-01
      3.66898149e-01 6.94444450e-03 1.82870373e-01 1.60879627e-01
      5.94907403e-01 2.14120373e-01 0. 0. 0. 4.59490746e-01
      1.50462966e-02</_>
    <_>
      2.78460264e-01 1.41687140e-01 0. 0. 0. 4.81572479e-01
      1.17117114e-01 0. 0. 0. 5.83947599e-01 2.94840299e-02 0. 0. 0.
      5.79033554e-01 0. 0. 0. 3.27600315e-02 4.41441447e-01
      6.06060624e-01 6.06060624e-01 6.06060624e-01 4.58640456e-01</_>
    <_>
      2.93162405e-01 5.94871819e-01 2.29914531e-01 0. 0. 5.90598285e-01
      2.15384617e-01 6.40170932e-01 7.00854734e-02 1.19658122e-02
      6.26495719e-01 5.90598285e-01 8.64957273e-01 7.75213659e-01
      6.19658113e-01 2.13675220e-02 1.51282057e-01 1.47863254e-01
      7.32478619e-01 6.05128229e-01 0. 0. 0. 2.43589744e-01
      4.13675219e-01</_>
    <_>
      5.69758937e-02 3.48429501e-01 6.09934270e-01 5.55880189e-01
      5.47845140e-02 4.74799126e-01 4.20745075e-01 1.24178231e-02
      2.08911613e-01 6.18699789e-01 6.13586545e-01 4.82103713e-02 0.
      4.89408337e-02 6.07742906e-01 4.82834190e-01 2.50547856e-01
      4.30971496e-02 6.19430244e-01 1.23447768e-01 2.55661067e-02
      5.50767004e-01 6.17238879e-01 1.64353549e-01 0.</_>
    <_>
      5.92105277e-02 5.31015038e-01 5.35714269e-01 5.46992481e-01
      1.48496240e-01 6.02443635e-01 4.45488721e-01 1.80451125e-01
      3.41165423e-01 6.80451155e-01 7.40601480e-01 7.42481202e-02 0.
      3.75939859e-03 5.93045115e-01 2.39661649e-01 5.97744346e-01
      1.38157889e-01 6.29699230e-01 3.99436086e-01 0. 4.27631587e-01
      6.24060154e-01 2.59398490e-01 0.</_>
    <_>
      0. 2.16783211e-01 6.66666687e-01 2.02020202e-02 0. 4.99611497e-01
      5.29137552e-01 4.42890435e-01 1.78710178e-01 0. 1.07226104e-01
      1.81818187e-01 4.54545468e-01 4.17249411e-01 2.72727281e-01
      2.50194252e-01 4.24242437e-01 6.78321660e-01 4.69308466e-01
      2.38539234e-01 0. 0. 4.48329449e-01 3.03030312e-02 0.</_>
    <_>
      3.95010382e-01 0. 0. 0. 0. 5.46777546e-01 1.97505206e-02
      5.32224536e-01 0. 1.03950106e-01 6.29937649e-01 5.11434495e-01
      7.04781711e-01 1.87110193e-02 7.16216207e-01 2.12058216e-01
      5.63409567e-01 6.88149691e-01 5.35343051e-01 4.24116433e-01 0. 0.
      2.37006232e-01 5.85239112e-01 4.57380451e-02</_>
    <_>
      0. 4.02457744e-01 4.94623661e-01 0. 0. 4.94623661e-01
      3.85560662e-01 4.93855596e-01 0. 0. 2.68817216e-01 4.96927798e-01
      8.09523821e-01 6.45161271e-01 5.06912470e-01 1.01382487e-01
      1.70506909e-01 5.45314908e-01 0. 0. 0. 6.14439324e-03
      3.69431645e-01 0. 0.</_>
    <_>
      3.40909094e-01 9.59595963e-02 0. 0. 0. 5.20202041e-01
      9.84848514e-02 0. 0. 0. 6.16161644e-01 1.43097639e-02 0. 0. 0.
      6.24579132e-01 0. 1.52356908e-01 3.59427601e-01 3.22390586e-01
      4.37710434e-01 5.79966307e-01 4.78114486e-01 2.67676771e-01
      1.58249155e-01</_>
    <_>
      2.85714287e-02 4.11688298e-01 4.55844164e-01 8.70129839e-02 0.
      5.19480526e-01 8.00000012e-01 6.80519462e-01 3.11688304e-01 0.
      6.18181825e-01 1.68831162e-02 4.25974011e-01 3.10389608e-01 0.
      5.84415555e-01 4.22077924e-01 9.44155872e-01 2.85714298e-01
      2.51948059e-01 1.94805190e-01 6.89610362e-01 6.81818187e-01
      6.81818187e-01 4.87012982e-01</_>
    <_>
      3.39438349e-01 3.30891341e-01 2.71062285e-01 0. 0. 4.29792434e-01
      8.74236882e-01 8.10744822e-01 0. 2.34432235e-01 0. 6.15384638e-01
      5.17704546e-01 9.40170959e-02 6.53235674e-01 0. 6.65445685e-01
      5.54334581e-01 6.77655697e-01 4.15140420e-01 0. 3.30891341e-01
      1.48962155e-01 7.05738723e-01 1.25763133e-01</_>
    <_>
      0. 1.65501162e-01 6.48018658e-01 4.25407924e-02 0. 4.55128193e-01
      4.34731930e-01 4.53379959e-01 6.99300691e-02 0. 7.34265745e-02
      1.59090906e-01 4.80769217e-01 2.61072248e-01 2.06876457e-01
      1.88811183e-01 3.61888111e-01 6.38111889e-01 4.00932401e-01
      2.50582755e-01 0. 0. 3.78205121e-01 8.15850776e-03 0.</_>
    <_>
      4.25751865e-01 0. 0. 0. 0. 5.38533807e-01 2.81954892e-02
      4.21052635e-01 0. 0. 6.02443635e-01 6.15601480e-01 6.53195500e-01
      1.87969916e-02 6.45676672e-01 2.61278182e-01 3.37406009e-01
      6.00563884e-01 4.24812019e-01 4.56766903e-01 0. 0. 1.85150370e-01
      5.31015038e-01 2.53759399e-02</_>
    <_>
      0. 5.17368801e-02 5.22542477e-01 1.71470806e-01 0. 4.88543987e-01
      6.26755357e-01 4.04286772e-01 3.00813019e-01 0. 1.07908353e-01
      6.06060624e-01 6.82926834e-01 7.22099066e-01 4.43458974e-01 0. 0.
      4.75979298e-01 1.52993351e-01 8.79526958e-02 0. 0. 3.77679229e-01
      0. 0.</_>
    <_>
      3.21000010e-01 2.00000009e-03 0. 0. 0. 5.50999999e-01 0. 0. 0. 0.
      5.54000020e-01 0. 0. 0. 0. 5.80999970e-01 2.00000003e-01
      2.00000003e-01 2.01000005e-01 2.64999986e-01 4.44000006e-01
      6.00000024e-01 6.00000024e-01 6.00000024e-01 4.88999993e-01</_>
    <_>
      0. 0. 0. 0. 0. 5.41666687e-01 7.50000000e-01 7.50000000e-01
      7.50000000e-01 6.04166687e-01 7.22222209e-01 1. 1. 1.
      8.05555582e-01 5.41666687e-01 7.50000000e-01 7.50000000e-01
      7.50000000e-01 6.04166687e-01 0. 0. 0. 0. 0.</_>
    <_>
      1.37362644e-01 5.49450576e-01 1.51648358e-01 0. 0. 5.18681347e-01
      4.54945058e-01 6.68131888e-01 1.91208795e-01 4.17582430e-02
      6.17582440e-01 1.43956050e-01 8.89010966e-01 7.15384603e-01
      6.00000024e-01 6.93406582e-01 8.32967043e-01 6.64835155e-01
      6.21978045e-01 6.47252738e-01 2.18681321e-01 6.59340667e-03
      4.39560460e-03 6.43956065e-01 2.61538476e-01</_>
    <_>
      4.21296299e-01 5.83333313e-01 3.40277791e-01 0. 0. 3.10185194e-01
      5.85648119e-01 5.62500000e-01 3.47222225e-03 5.86805582e-01
      2.82407403e-01 3.53009254e-01 5.61342597e-01 2.00231478e-01
      6.00694418e-01 2.97453701e-01 2.53472209e-01 7.68518507e-01
      6.86342597e-01 2.43055552e-01 0. 0. 3.33333343e-01 4.94212955e-01
      2.31481483e-03</_>
    <_>
      0. 2.51351357e-01 6.27927899e-01 1.19819820e-01 0. 3.64864856e-01
      6.42342329e-01 5.29729724e-01 2.00900897e-01 0. 2.25225225e-01
      3.00000012e-01 7.48648643e-01 4.06306297e-01 3.46846849e-01
      2.67567575e-01 3.66666675e-01 7.71171153e-01 3.00000012e-01
      2.35135138e-01 0. 1.80180185e-03 3.83783787e-01 0. 0.</_>
    <_>
      0. 0. 0. 0. 0. 4.74358976e-01 5.35256386e-01 5.00000000e-01
      5.00000000e-01 3.71794879e-01 7.43589759e-01 1. 1. 1.
      7.43589759e-01 6.50641024e-01 9.90384638e-01 1. 1. 7.43589759e-01
      0. 9.61538497e-03 0. 0. 0.</_>
    <_>
      1.94117650e-01 6.14117622e-01 6.29411757e-01 7.05882348e-03 0.
      6.62352920e-01 2.92941183e-01 7.38823533e-01 4.11764719e-02 0.
      6.58823550e-01 2.43529409e-01 6.50588214e-01 1.17647054e-03 0.
      5.15294135e-01 8.85882378e-01 4.22352940e-01 3.19999993e-01
      2.35294119e-01 1.28235295e-01 5.09411752e-01 4.79999989e-01
      4.79999989e-01 3.52941185e-01</_>
    <_>
      0. 1.44522145e-01 1.91142187e-01 2.79720277e-02 3.49650353e-01
      6.22377634e-01 9.90675986e-01 8.06526780e-01 6.06060624e-02
      6.60839140e-01 8.04195777e-02 5.59440553e-01 5.97902119e-01
      5.74592054e-01 3.76456887e-01 0. 5.53613067e-01 2.09790215e-01
      6.41025662e-01 4.42890450e-02 0. 2.79720277e-01 0. 0. 0.</_>
    <_>
      3.14000010e-01 4.69999999e-01 1.99999996e-02 0. 0. 6.17999971e-01
      5.00999987e-01 7.46999979e-01 7.92999983e-01 4.26999986e-01
      6.25000000e-01 6.06000006e-01 8.87000024e-01 9.89999995e-02
      6.84000015e-01 2.89000005e-01 6.65000021e-01 5.41000009e-01
      6.11000001e-01 4.62000012e-01 1.00000005e-03 7.00000022e-03
      6.70000017e-02 4.56999987e-01 1.28000006e-01</_>
    <_>
      3.82608682e-01 4.67826098e-01 8.69565234e-02 0. 1.19130433e-01
      4.64347839e-01 7.06956506e-01 2.00000003e-01 0. 5.76521754e-01
      3.27826083e-01 3.83478254e-01 2.00000003e-01 2.99130440e-01
      4.42608684e-01 2.47826084e-01 2.76521742e-01 4.79999989e-01
      6.08695626e-01 6.08695671e-03 0. 4.08695638e-02 6.25217378e-01
      2.12173909e-01 0.</_>
    <_>
      6.53594779e-03 3.58387798e-01 5.43572962e-01 4.83660132e-01
      2.72331163e-02 3.37690622e-01 7.08060980e-01 2.67973870e-01
      5.34858406e-01 5.55555582e-01 6.42701507e-01 2.32026145e-01 0.
      1.63398702e-02 6.35076225e-01 2.04793021e-01 7.12418318e-01
      1.38344228e-01 5.23965120e-01 4.59694982e-01 0. 3.59477133e-01
      6.59041405e-01 5.14161229e-01 2.17864923e-02</_>
    <_>
      0. 1.71875000e-01 4.63541657e-01 4.78125006e-01 1.18749999e-01
      2.35416666e-01 8.64583313e-01 8.33333313e-01 4.68750000e-01
      5.21875024e-01 5.33333361e-01 1.31249994e-01 6.32291675e-01
      5.72916679e-02 6.12500012e-01 0. 0. 4.08333331e-01 5.37500024e-01
      6.34374976e-01 0. 0. 1.14583336e-01 5.34375012e-01 2.16666669e-01</_></uncompressed_support_vectors>
  <decision_functions>
    <_>
      <sv_count>1</sv_count>
      <rho>4.7599650216327294e-01</rho>
      <alpha>
        1.</alpha>
      <index>
        0</index></_>
    <_>
      <sv_count>1</sv_count>
      <rho>-9.1823346203754230e-01</rho>
      <alpha>
        1.</alpha>
      <index>
        1</index></_>
    <_>
      <sv_count>1</sv_count>
      <rho>-1.5332498384366238e+00</rho>
      <alpha>
        1.</alpha>
      <index>
        2</index></_>
    <_>
      <sv_count>1</sv_count>
      <rho>2.8280720136178389e-01</rho>
      <alpha>
        1.</alpha>
      <index>
        3</index></_>
    <_>
      <sv_count>1</sv_count>
      <rho>-4.6642227998215047e-01</rho>
      <alpha>
        1.</alpha>
      <index>
        4</index></_>
    <_>
      <sv_count>1</sv_count>
      <rho>3.3772479298173252e-01</rho>
      <alpha>
        1.</alpha>
      <index>
        5</index></_>
    <_>
      <sv_count>1</sv_count>
      <rho>-1.8184047285452962e-01</rho>
      <alpha>
        1.</alpha>
      <index>
        6</index></_>
    <_>
      <sv_count>1</sv_count>
      <rho>1.5161864584910106e-01</rho>
      <alpha>
        1.</alpha>
      <index>
        7</index></_>
    <_>
      <sv_count>1</sv_count>
      <rho>-7.1312728827487459e-01</rho>
      <alpha>
        1.</alpha>
      <index>
        8</index></_>
    <_>
      <sv_count>1</sv_count>
      <rho>-9.2743201381019347e-01</rho>
      <alpha>
        1.</alpha>
      <index>
        9</index></_>
    <_>
      <sv_count>1</sv_count>
      <rho>-8.3431933362549693e-01</rho>
      <alpha>
        1.</alpha>
      <index>
        10</index></_>
    <_>
      <sv_count>1</sv_count>
      <rho>1.5863918337099812e+00</rho>
      <alpha>
        1.</alpha>
      <index>
        11</index></_>
    <_>
      <sv_count>1</sv_count>
      <rho>9.2683368989763523e-02</rho>
      <alpha>
        1.</alpha>
      <index>
        12</index></_>
    <_>
      <sv_count>1</sv_count>
      <rho>9.3914562211904418e-01</rho>
      <alpha>
        1.</alpha>
      <index>
        13</index></_>
    <_>
      <sv_count>1</sv_count>
      <rho>-6.9292677143032111e-02</rho>
      <alpha>
        1.</alpha>
      <index>
        14</index></_>
    <_>
      <sv_count>1</sv_count>
      <rho>5.2423193096170273e-01</rho>
      <alpha>
        1.</alpha>
      <index>
        15</index></_>
    <_>
      <sv_count>1</sv_count>
      <rho>-6.1142384434052077e-01</rho>
      <alpha>
        1.</alpha>
      <index>
        16</index></_>
    <_>
      <sv_count>1</sv_count>
      <rho>6.7864025019069163e-01</rho>
      <alpha>
        1.</alpha>
      <index>
        17</index></_>
    <_>
      <sv_count>1</sv_count>
      <rho>9.3914948497809081e-01</rho>
      <alpha>
        1.</alpha>
      <index>
        18</index></_>
    <_>
      <sv_count>1</sv_count>
      <rho>2.0274263407504627e+00</rho>
      <alpha>
        1.</alpha>
      <index>
        19</index></_>
    <_>
      <sv_count>1</sv_count>
      <rho>1.4614541192417434e+00</rho>
      <alpha>
        1.</alpha>
      <index>
        20</index></_>
    <_>
      <sv_count>1</sv_count>
      <rho>1.2754591240320106e+00</rho>
      <alpha>
        1.</alpha>
      <index>
        21</index></_>
    <_>
      <sv_count>1</sv_count>
      <rho>1.4850826220802933e+00</rho>
      <alpha>
        1.</alpha>
      <index>
        22</index></_>
    <_>
      <sv_count>1</sv_count>
      <rho>1.6966083508555063e-01</rho>
      <alpha>
        1.</alpha>
      <index>
        23</index></_>
    <_>
      <sv_count>1</sv_count>
      <rho>1.3179403071317684e+00</rho>
      <alpha>
        1.</alpha>
      <index>
        24</index></_>
    <_>
      <sv_count>1</sv_count>
      <rho>1.3755481996873558e+00</rho>
      <alpha>
        1.</alpha>
      <index>
        25</index></_>
    <_>
      <sv_count>1</sv_count>
      <rho>6.7582927158085149e-01</rho>
      <alpha>
        1.</alpha>
      <index>
        26</index></_>
    <_>
      <sv_count>1</sv_count>
      <rho>9.0760057565832120e-01</rho>
      <alpha>
        1.</alpha>
      <index>
        27</index></_>
    <_>
      <sv_count>1</sv_count>
      <rho>2.3188433389093532e+00</rho>
      <alpha>
        1.</alpha>
      <index>
        28</index></_>
    <_>
      <sv_count>1</sv_count>
      <rho>-3.7704726462466942e-01</rho>
      <alpha>
        1.</alpha>
      <index>
        29</index></_>
    <_>
      <sv_count>1</sv_count>
      <rho>-7.1565623859583138e-01</rho>
      <alpha>
        1.</alpha>
      <index>
        30</index></_>
    <_>
      <sv_count>1</sv_count>
      <rho>-7.9939131080254777e-01</rho>
      <alpha>
        1.</alpha>
      <index>
        31</index></_>
    <_>
      <sv_count>1</sv_count>
      <rho>-7.4496817642500002e-01</rho>
      <alpha>
        1.</alpha>
      <index>
        32</index></_>
    <_>
      <sv_count>1</sv_count>
      <rho>-1.0185880679380116e-01</rho>
      <alpha>
        1.</alpha>
      <index>
        33</index></_>
    <_>
      <sv_count>1</sv_count>
      <rho>-1.6288116907188748e+00</rho>
      <alpha>
        1.</alpha>
      <index>
        34</index></_>
    <_>
      <sv_count>1</sv_count>
      <rho>6.5231639146804832e-01</rho>
      <alpha>
        1.</alpha>
      <index>
        35</index></_>
    <_>
      <sv_count>1</sv_count>
      <rho>5.2893896072351609e-01</rho>
      <alpha>
        1.</alpha>
      <index>
        36</index></_>
    <_>
      <sv_count>1</sv_count>
      <rho>7.9392347533639351e-01</rho>
      <alpha>
        1.</alpha>
      <index>
        37</index></_>
    <_>
      <sv_count>1</sv_count>
      <rho>-4.4790333925251757e-01</rho>
      <alpha>
        1.</alpha>
      <index>
        38</index></_>
    <_>
      <sv_count>1</sv_count>
      <rho>-3.3698451644837846e-01</rho>
      <alpha>
        1.</alpha>
      <index>
        39</index></_>
    <_>
      <sv_count>1</sv_count>
      <rho>-2.3338853006861165e-01</rho>
      <alpha>
        1.</alpha>
      <index>
        40</index></_>
    <_>
      <sv_count>1</sv_count>
      <rho>-1.2602008725112257e+00</rho>
      <alpha>
        1.</alpha>
      <index>
        41</index></_>
    <_>
      <sv_count>1</sv_count>
      <rho>8.0529909792423682e-01</rho>
      <alpha>
        1.</alpha>
      <index>
        42</index></_>
    <_>
      <sv_count>1</sv_count>
      <rho>-3.4102561242496826e-01</rho>
      <alpha>
        1.</alpha>
      <index>
        43</index></_>
    <_>
      <sv_count>1</sv_count>
      <rho>-9.7587010379471228e-01</rho>
      <alpha>
        1.</alpha>
      <index>
        44</index></_></decision_functions></opencv_ml_svm>
</opencv_storage>
